svm_type c_svc
kernel_type rbf
gamma 0.5
nr_class 2
total_sv 1953
rho 0.2188188251246848
label 1 -1
nr_sv 976 977
SV
1.0 1:0.0 2:0.0 
1.0 1:0.0 2:0.0 
1.0 1:0.0 2:1.0 
1.0 1:0.0 2:0.0 
1.0 1:0.9032258064516129 2:0.09677419354838712 
1.0 1:0.0 2:0.0 
1.0 1:0.0 2:1.0 
1.0 1:0.8611111111111112 2:0.13888888888888884 
1.0 1:0.0 2:0.0 
1.0 1:0.0 2:1.0 
1.0 1:0.3 2:0.7 
1.0 1:0.0 2:0.0 
1.0 1:0.0 2:1.0 
1.0 1:0.0 2:1.0 
1.0 1:0.302158273381295 2:0.697841726618705 
1.0 1:0.0 2:0.0 
1.0 1:0.0 2:1.0 
1.0 1:0.7368421052631579 2:0.26315789473684215 
1.0 1:0.75 2:0.25 
1.0 1:0.5 2:0.5 
1.0 1:0.0 2:1.0 
1.0 1:0.22033898305084745 2:0.7796610169491526 
1.0 1:0.0 2:0.0 
1.0 1:0.0 2:0.0 
1.0 1:0.9032258064516129 2:0.09677419354838712 
1.0 1:0.0 2:0.0 
1.0 1:0.375 2:0.625 
1.0 1:0.0 2:0.0 
1.0 1:0.8888888888888888 2:0.11111111111111116 
1.0 1:0.8461538461538461 2:0.15384615384615385 
1.0 1:0.7931034482758621 2:0.2068965517241379 
1.0 1:0.0 2:0.0 
1.0 1:0.6842105263157895 2:0.3157894736842105 
1.0 1:0.7909407665505226 2:0.2090592334494774 
1.0 1:0.0 2:0.0 
1.0 1:0.0 2:0.0 
1.0 1:0.0 2:0.0 
1.0 1:0.0 2:0.0 
1.0 1:0.8514851485148515 2:0.14851485148514854 
1.0 1:0.0 2:1.0 
1.0 1:0.0 2:0.0 
1.0 1:0.7692307692307693 2:0.23076923076923073 
1.0 1:0.8422939068100359 2:0.1577060931899641 
1.0 1:0.0 2:1.0 
1.0 1:0.6666666666666666 2:0.33333333333333337 
1.0 1:0.7222222222222222 2:0.2777777777777778 
1.0 1:0.8 2:0.19999999999999996 
1.0 1:0.7222222222222222 2:0.2777777777777778 
1.0 1:0.0 2:1.0 
1.0 1:0.0 2:0.0 
1.0 1:0.0 2:1.0 
1.0 1:0.3684210526315789 2:0.631578947368421 
1.0 1:0.4 2:0.6 
1.0 1:0.5235602094240838 2:0.47643979057591623 
1.0 1:0.0 2:0.0 
1.0 1:0.0 2:0.0 
1.0 1:0.0 2:1.0 
1.0 1:0.6744186046511628 2:0.32558139534883723 
1.0 1:0.0 2:0.0 
1.0 1:0.5443548387096774 2:0.4556451612903226 
1.0 1:0.0 2:0.0 
1.0 1:0.0 2:0.0 
1.0 1:0.0 2:0.0 
1.0 1:0.5454545454545454 2:0.4545454545454546 
1.0 1:0.0 2:0.0 
1.0 1:0.7841726618705036 2:0.2158273381294964 
1.0 1:0.85 2:0.15000000000000002 
1.0 1:0.9 2:0.09999999999999998 
1.0 1:0.0 2:0.0 
1.0 1:0.0 2:0.0 
1.0 1:0.0 2:0.0 
1.0 1:0.0 2:0.0 
1.0 1:0.0 2:1.0 
1.0 1:0.5625 2:0.4375 
1.0 1:0.0 2:0.0 
1.0 1:0.6902654867256637 2:0.3097345132743363 
1.0 1:0.7865853658536587 2:0.21341463414634132 
1.0 1:0.6296296296296297 2:0.37037037037037035 
1.0 1:0.6551724137931034 2:0.3448275862068966 
1.0 1:0.0 2:0.0 
1.0 1:0.0 2:0.0 
1.0 1:0.911660777385159 2:0.08833922261484095 
1.0 1:0.8181818181818182 2:0.18181818181818177 
1.0 1:0.8125 2:0.1875 
1.0 1:0.0 2:0.0 
1.0 1:0.9157303370786517 2:0.0842696629213483 
1.0 1:0.0 2:0.0 
1.0 1:0.0 2:0.0 
1.0 1:0.0 2:0.0 
1.0 1:0.7206703910614526 2:0.2793296089385474 
1.0 1:0.5512820512820513 2:0.4487179487179487 
1.0 1:0.7741935483870968 2:0.22580645161290325 
1.0 1:0.6236559139784945 2:0.3763440860215055 
1.0 1:0.7697368421052632 2:0.23026315789473684 
1.0 1:0.9059561128526645 2:0.09404388714733547 
1.0 1:0.782608695652174 2:0.21739130434782605 
1.0 1:0.0 2:0.0 
1.0 1:0.6875 2:0.3125 
1.0 1:0.0 2:1.0 
1.0 1:0.8 2:0.19999999999999996 
1.0 1:0.8846153846153846 2:0.11538461538461542 
1.0 1:0.0 2:1.0 
1.0 1:0.7058823529411765 2:0.2941176470588235 
1.0 1:0.6629213483146068 2:0.3370786516853932 
1.0 1:0.6267605633802817 2:0.37323943661971826 
1.0 1:0.45 2:0.55 
1.0 1:0.7692307692307693 2:0.23076923076923073 
1.0 1:0.225 2:0.775 
1.0 1:0.7846153846153846 2:0.2153846153846154 
1.0 1:0.3253012048192771 2:0.6746987951807228 
1.0 1:0.0 2:1.0 
1.0 1:0.0 2:0.0 
1.0 1:0.8050139275766016 2:0.19498607242339838 
1.0 1:0.8571428571428571 2:0.1428571428571429 
1.0 1:0.0 2:0.0 
1.0 1:0.7388059701492538 2:0.26119402985074625 
1.0 1:0.0 2:0.0 
1.0 1:0.0 2:0.0 
1.0 1:0.0 2:0.0 
1.0 1:0.5 2:0.5 
1.0 1:0.8091603053435115 2:0.19083969465648853 
1.0 1:0.0 2:0.0 
1.0 1:0.0 2:0.0 
1.0 1:0.9337748344370861 2:0.06622516556291391 
1.0 1:0.0 2:0.0 
1.0 1:0.0 2:1.0 
1.0 1:0.3629343629343629 2:0.6370656370656371 
1.0 1:0.0 2:1.0 
1.0 1:0.0 2:0.0 
1.0 1:0.0 2:0.0 
1.0 1:0.0 2:0.0 
1.0 1:0.7857142857142857 2:0.2142857142857143 
1.0 1:0.0 2:0.0 
1.0 1:0.34883720930232553 2:0.6511627906976745 
1.0 1:0.0 2:0.0 
1.0 1:0.8333333333333334 2:0.16666666666666663 
1.0 1:0.8064516129032258 2:0.19354838709677424 
1.0 1:0.0 2:0.0 
1.0 1:0.12448132780082986 2:0.8755186721991701 
1.0 1:0.0 2:0.0 
1.0 1:0.0 2:0.0 
1.0 1:0.0 2:0.0 
1.0 1:0.0 2:0.0 
1.0 1:0.8125 2:0.1875 
1.0 1:0.0 2:0.0 
1.0 1:0.0 2:0.0 
1.0 1:0.6774193548387096 2:0.32258064516129037 
1.0 1:0.0 2:0.0 
1.0 1:0.6666666666666666 2:0.33333333333333337 
1.0 1:0.0 2:0.0 
1.0 1:0.0 2:0.0 
1.0 1:0.0 2:0.0 
1.0 1:0.0 2:0.0 
1.0 1:0.0 2:0.0 
1.0 1:0.0 2:1.0 
1.0 1:0.0 2:0.0 
1.0 1:0.85 2:0.15000000000000002 
1.0 1:0.0 2:0.0 
1.0 1:0.0 2:0.0 
1.0 1:0.8 2:0.19999999999999996 
1.0 1:0.0 2:0.0 
1.0 1:0.8 2:0.19999999999999996 
1.0 1:0.0 2:0.0 
1.0 1:0.0 2:0.0 
1.0 1:0.3 2:0.7 
1.0 1:0.0 2:1.0 
1.0 1:0.5 2:0.5 
1.0 1:0.0 2:1.0 
1.0 1:0.0 2:0.0 
1.0 1:0.0 2:0.0 
1.0 1:0.0 2:0.0 
1.0 1:0.0 2:1.0 
1.0 1:0.0 2:0.0 
1.0 1:0.0 2:0.0 
1.0 1:0.8755760368663594 2:0.12442396313364057 
1.0 1:0.0 2:0.0 
1.0 1:0.0 2:0.0 
1.0 1:0.0 2:0.0 
1.0 1:0.7777777777777778 2:0.2222222222222222 
1.0 1:0.7777777777777778 2:0.2222222222222222 
1.0 1:0.5806451612903226 2:0.4193548387096774 
1.0 1:0.582089552238806 2:0.417910447761194 
1.0 1:0.8051948051948052 2:0.19480519480519476 
1.0 1:0.0 2:0.0 
1.0 1:0.0 2:0.0 
1.0 1:0.8901098901098901 2:0.10989010989010994 
1.0 1:0.0 2:0.0 
1.0 1:0.5 2:0.5 
1.0 1:0.0 2:0.0 
1.0 1:0.0 2:0.0 
1.0 1:0.6 2:0.4 
1.0 1:0.0 2:0.0 
1.0 1:0.0 2:0.0 
1.0 1:0.5 2:0.5 
1.0 1:0.8636363636363636 2:0.13636363636363635 
1.0 1:0.708955223880597 2:0.29104477611940305 
1.0 1:0.0 2:0.0 
1.0 1:0.0 2:0.0 
1.0 1:0.0 2:0.0 
1.0 1:0.0 2:1.0 
1.0 1:0.0 2:0.0 
1.0 1:0.7986577181208053 2:0.20134228187919467 
1.0 1:0.7627118644067796 2:0.23728813559322037 
1.0 1:0.0 2:0.0 
1.0 1:0.0 2:0.0 
1.0 1:0.0 2:0.0 
1.0 1:0.0 2:0.0 
1.0 1:0.0 2:0.0 
1.0 1:0.0 2:0.0 
1.0 1:0.0 2:0.0 
1.0 1:0.0 2:0.0 
1.0 1:0.7154471544715447 2:0.2845528455284553 
1.0 1:0.3 2:0.7 
1.0 1:0.7142857142857143 2:0.2857142857142857 
1.0 1:0.7904191616766467 2:0.20958083832335328 
1.0 1:0.8133971291866029 2:0.1866028708133971 
1.0 1:0.0 2:1.0 
1.0 1:0.7272727272727273 2:0.2727272727272727 
1.0 1:0.3 2:0.7 
1.0 1:0.0 2:0.0 
1.0 1:0.8 2:0.19999999999999996 
1.0 1:0.47500000000000003 2:0.5249999999999999 
1.0 1:0.0 2:0.0 
1.0 1:0.0 2:0.0 
1.0 1:0.6062992125984252 2:0.39370078740157477 
1.0 1:0.7560975609756098 2:0.24390243902439024 
1.0 1:0.0 2:0.0 
1.0 1:0.25 2:0.75 
1.0 1:0.25 2:0.75 
1.0 1:0.0 2:0.0 
1.0 1:0.7715591090805255 2:0.2284408909194745 
1.0 1:0.0 2:0.0 
1.0 1:0.3 2:0.7 
1.0 1:0.0 2:0.0 
1.0 1:0.0 2:0.0 
1.0 1:0.6774193548387096 2:0.32258064516129037 
1.0 1:0.24271844660194172 2:0.7572815533980582 
1.0 1:0.0 2:0.0 
1.0 1:0.0 2:0.0 
1.0 1:0.0 2:0.0 
1.0 1:0.0 2:0.0 
1.0 1:0.0 2:0.0 
1.0 1:0.7777777777777778 2:0.2222222222222222 
1.0 1:0.0 2:0.0 
1.0 1:0.0 2:0.0 
1.0 1:0.7 2:0.30000000000000004 
1.0 1:0.0 2:0.0 
1.0 1:0.9 2:0.09999999999999998 
1.0 1:0.0 2:0.0 
1.0 1:0.40298507462686567 2:0.5970149253731343 
1.0 1:0.0 2:0.0 
1.0 1:0.0 2:0.0 
1.0 1:0.7560975609756098 2:0.24390243902439024 
1.0 1:0.7560975609756098 2:0.24390243902439024 
1.0 1:0.0 2:0.0 
1.0 1:0.0 2:0.0 
1.0 1:0.6666666666666666 2:0.33333333333333337 
1.0 1:0.696969696969697 2:0.303030303030303 
1.0 1:0.0 2:0.0 
1.0 1:0.0 2:0.0 
1.0 1:0.6666666666666666 2:0.33333333333333337 
1.0 1:0.3 2:0.7 
1.0 1:0.0 2:0.0 
1.0 1:0.0 2:0.0 
1.0 1:0.0 2:1.0 
1.0 1:0.7857142857142857 2:0.2142857142857143 
1.0 1:0.5555555555555556 2:0.4444444444444444 
1.0 1:0.0 2:0.0 
1.0 1:0.9166666666666666 2:0.08333333333333337 
1.0 1:0.8 2:0.19999999999999996 
1.0 1:0.9859550561797753 2:0.014044943820224698 
1.0 1:0.43478260869565216 2:0.5652173913043479 
1.0 1:0.8351648351648352 2:0.1648351648351648 
1.0 1:0.8 2:0.19999999999999996 
1.0 1:0.8421052631578947 2:0.1578947368421053 
1.0 1:0.8 2:0.19999999999999996 
1.0 1:0.0 2:0.0 
1.0 1:0.5936073059360731 2:0.40639269406392686 
1.0 1:0.8214285714285714 2:0.1785714285714286 
1.0 1:0.0 2:0.0 
1.0 1:0.8214285714285714 2:0.1785714285714286 
1.0 1:0.0 2:0.0 
1.0 1:0.680365296803653 2:0.319634703196347 
1.0 1:0.680365296803653 2:0.319634703196347 
1.0 1:0.0 2:1.0 
1.0 1:0.6111111111111112 2:0.38888888888888884 
1.0 1:0.8076923076923077 2:0.1923076923076923 
1.0 1:0.0 2:0.0 
1.0 1:0.0 2:0.0 
1.0 1:0.6116504854368932 2:0.38834951456310685 
1.0 1:0.0 2:0.0 
1.0 1:0.7520891364902508 2:0.24791086350974922 
1.0 1:0.6666666666666666 2:0.33333333333333337 
1.0 1:0.8958333333333334 2:0.10416666666666663 
1.0 1:0.0 2:0.0 
1.0 1:0.4166666666666667 2:0.5833333333333333 
1.0 1:0.7252747252747253 2:0.27472527472527475 
1.0 1:0.7368421052631579 2:0.26315789473684215 
1.0 1:0.7637795275590551 2:0.2362204724409449 
1.0 1:0.0 2:0.0 
1.0 1:0.5833333333333334 2:0.41666666666666663 
1.0 1:0.3805309734513274 2:0.6194690265486726 
1.0 1:0.0 2:0.0 
1.0 1:0.0 2:1.0 
1.0 1:0.0 2:0.0 
1.0 1:0.0 2:0.0 
1.0 1:0.0 2:0.0 
1.0 1:0.0 2:0.0 
1.0 1:0.6124031007751938 2:0.3875968992248062 
1.0 1:0.3 2:0.7 
1.0 1:0.6089385474860336 2:0.3910614525139664 
1.0 1:0.6089385474860336 2:0.3910614525139664 
1.0 1:0.6089385474860336 2:0.3910614525139664 
1.0 1:0.0 2:1.0 
1.0 1:0.5 2:0.5 
1.0 1:0.5 2:0.5 
1.0 1:0.4 2:0.6 
1.0 1:0.7391304347826086 2:0.26086956521739135 
1.0 1:0.8 2:0.19999999999999996 
1.0 1:0.0 2:0.0 
1.0 1:0.5705521472392638 2:0.42944785276073616 
1.0 1:0.0 2:0.0 
1.0 1:0.5357142857142857 2:0.4642857142857143 
1.0 1:0.3333333333333333 2:0.6666666666666667 
1.0 1:0.0 2:0.0 
1.0 1:0.0 2:0.0 
1.0 1:0.0 2:0.0 
1.0 1:0.7188755020080321 2:0.2811244979919679 
1.0 1:0.8387096774193549 2:0.16129032258064513 
1.0 1:0.7188755020080321 2:0.2811244979919679 
1.0 1:0.0 2:0.0 
1.0 1:0.5454545454545454 2:0.4545454545454546 
1.0 1:0.5882352941176471 2:0.4117647058823529 
1.0 1:0.7340425531914894 2:0.26595744680851063 
1.0 1:0.0 2:1.0 
1.0 1:0.5882352941176471 2:0.4117647058823529 
1.0 1:0.5483870967741935 2:0.4516129032258065 
1.0 1:0.0 2:0.0 
1.0 1:0.0 2:1.0 
1.0 1:0.0 2:0.0 
1.0 1:0.8888888888888888 2:0.11111111111111116 
1.0 1:0.7487437185929648 2:0.25125628140703515 
1.0 1:0.5 2:0.5 
1.0 1:0.0 2:0.0 
1.0 1:0.8064516129032258 2:0.19354838709677424 
1.0 1:0.7846153846153846 2:0.2153846153846154 
1.0 1:0.0 2:0.0 
1.0 1:0.0 2:1.0 
1.0 1:0.5371900826446281 2:0.4628099173553719 
1.0 1:0.7967479674796748 2:0.2032520325203252 
1.0 1:0.7967479674796748 2:0.2032520325203252 
1.0 1:0.75 2:0.25 
1.0 1:0.6666666666666666 2:0.33333333333333337 
1.0 1:0.8404255319148937 2:0.15957446808510634 
1.0 1:0.6428571428571429 2:0.3571428571428571 
1.0 1:0.0 2:0.0 
1.0 1:0.0 2:0.0 
1.0 1:0.0 2:0.0 
1.0 1:0.0 2:0.0 
1.0 1:0.0 2:1.0 
1.0 1:0.8235294117647058 2:0.17647058823529416 
1.0 1:0.0 2:0.0 
1.0 1:0.0 2:0.0 
1.0 1:0.0 2:0.0 
1.0 1:0.8235294117647058 2:0.17647058823529416 
1.0 1:0.0 2:0.0 
1.0 1:0.0 2:0.0 
1.0 1:0.0 2:0.0 
1.0 1:0.0 2:0.0 
1.0 1:0.7619047619047619 2:0.23809523809523814 
1.0 1:0.7857142857142857 2:0.2142857142857143 
1.0 1:0.9302325581395349 2:0.06976744186046513 
1.0 1:0.0 2:0.0 
1.0 1:0.826302729528536 2:0.173697270471464 
1.0 1:0.5701754385964913 2:0.42982456140350866 
1.0 1:0.5701754385964913 2:0.42982456140350866 
1.0 1:0.8421052631578947 2:0.1578947368421053 
1.0 1:0.0 2:1.0 
1.0 1:0.5 2:0.5 
1.0 1:0.6183206106870228 2:0.3816793893129772 
1.0 1:0.7272727272727273 2:0.2727272727272727 
1.0 1:0.6226415094339622 2:0.37735849056603776 
1.0 1:0.0 2:0.0 
1.0 1:0.0 2:0.0 
1.0 1:0.7272727272727273 2:0.2727272727272727 
1.0 1:0.0 2:0.0 
1.0 1:0.5 2:0.5 
1.0 1:0.0 2:1.0 
1.0 1:0.0 2:0.0 
1.0 1:0.0 2:0.0 
1.0 1:0.875 2:0.125 
1.0 1:0.0 2:0.0 
1.0 1:0.0 2:0.0 
1.0 1:0.4736842105263158 2:0.5263157894736842 
1.0 1:0.375 2:0.625 
1.0 1:0.53550099535501 2:0.46449900464499005 
1.0 1:0.0 2:0.0 
1.0 1:0.6855345911949685 2:0.3144654088050315 
1.0 1:0.0 2:0.0 
1.0 1:0.8275862068965517 2:0.1724137931034483 
1.0 1:0.8378378378378378 2:0.16216216216216217 
1.0 1:0.0 2:0.0 
1.0 1:0.0 2:0.0 
1.0 1:0.4166666666666667 2:0.5833333333333333 
1.0 1:0.31034482758620696 2:0.689655172413793 
1.0 1:0.0 2:0.0 
1.0 1:0.4488188976377953 2:0.5511811023622046 
1.0 1:0.7368421052631579 2:0.26315789473684215 
1.0 1:0.8780487804878049 2:0.12195121951219512 
1.0 1:0.0 2:0.0 
1.0 1:0.0 2:1.0 
1.0 1:0.23076923076923078 2:0.7692307692307692 
1.0 1:0.0 2:0.0 
1.0 1:0.0 2:1.0 
1.0 1:0.29411764705882354 2:0.7058823529411764 
1.0 1:0.7478991596638656 2:0.25210084033613445 
1.0 1:0.38461538461538464 2:0.6153846153846154 
1.0 1:0.0 2:0.0 
1.0 1:0.6744186046511628 2:0.32558139534883723 
1.0 1:0.44247787610619466 2:0.5575221238938053 
1.0 1:0.0 2:0.0 
1.0 1:0.0 2:1.0 
1.0 1:0.0 2:0.0 
1.0 1:0.5454545454545454 2:0.4545454545454546 
1.0 1:0.3 2:0.7 
1.0 1:0.9230769230769231 2:0.07692307692307687 
1.0 1:0.9230769230769231 2:0.07692307692307687 
1.0 1:0.0 2:0.0 
1.0 1:0.9 2:0.09999999999999998 
1.0 1:0.6428571428571429 2:0.3571428571428571 
1.0 1:0.8559077809798271 2:0.14409221902017288 
1.0 1:0.0 2:1.0 
1.0 1:0.0 2:0.0 
1.0 1:0.7706422018348624 2:0.22935779816513757 
1.0 1:0.6923076923076923 2:0.3076923076923077 
1.0 1:0.8074866310160428 2:0.1925133689839572 
1.0 1:0.5 2:0.5 
1.0 1:0.6666666666666666 2:0.33333333333333337 
1.0 1:0.0 2:0.0 
1.0 1:0.631578947368421 2:0.368421052631579 
1.0 1:0.7757009345794392 2:0.22429906542056077 
1.0 1:0.7307692307692307 2:0.2692307692307693 
1.0 1:0.0 2:1.0 
1.0 1:0.0 2:0.0 
1.0 1:0.0 2:1.0 
1.0 1:0.5652173913043478 2:0.4347826086956522 
1.0 1:0.7674418604651163 2:0.2325581395348837 
1.0 1:0.5 2:0.5 
1.0 1:0.0 2:0.0 
1.0 1:0.0 2:0.0 
1.0 1:0.0 2:0.0 
1.0 1:0.0 2:1.0 
1.0 1:0.625 2:0.375 
1.0 1:0.0 2:1.0 
1.0 1:0.2586206896551724 2:0.7413793103448276 
1.0 1:0.7931034482758621 2:0.2068965517241379 
1.0 1:0.0 2:1.0 
1.0 1:0.0 2:1.0 
1.0 1:0.3333333333333333 2:0.6666666666666667 
1.0 1:0.0 2:0.0 
1.0 1:0.0 2:0.0 
1.0 1:0.5270270270270271 2:0.4729729729729729 
1.0 1:0.0 2:0.0 
1.0 1:0.0 2:0.0 
1.0 1:0.6332518337408313 2:0.36674816625916873 
1.0 1:0.0 2:0.0 
1.0 1:0.0 2:0.0 
1.0 1:1.0 2:0.0 
1.0 1:1.0 2:0.0 
1.0 1:0.0 2:1.0 
1.0 1:0.0 2:0.0 
1.0 1:1.0 2:0.0 
1.0 1:1.0 2:0.0 
1.0 1:0.0 2:1.0 
1.0 1:1.0 2:0.0 
1.0 1:0.0 2:0.0 
1.0 1:1.0 2:0.0 
1.0 1:1.0 2:0.0 
1.0 1:0.5977011494252874 2:0.4022988505747126 
1.0 1:0.0 2:0.0 
1.0 1:0.6666666666666666 2:0.33333333333333337 
1.0 1:1.0 2:0.0 
1.0 1:0.0 2:0.0 
1.0 1:0.0 2:0.0 
1.0 1:1.0 2:0.0 
1.0 1:1.0 2:0.0 
1.0 1:1.0 2:0.0 
1.0 1:1.0 2:0.0 
1.0 1:0.0 2:0.0 
1.0 1:1.0 2:0.0 
1.0 1:1.0 2:0.0 
1.0 1:1.0 2:0.0 
1.0 1:1.0 2:0.0 
1.0 1:1.0 2:0.0 
1.0 1:1.0 2:0.0 
1.0 1:1.0 2:0.0 
1.0 1:1.0 2:0.0 
1.0 1:0.8125 2:0.1875 
1.0 1:0.0 2:0.0 
1.0 1:1.0 2:0.0 
1.0 1:0.4166666666666667 2:0.5833333333333333 
1.0 1:1.0 2:0.0 
1.0 1:1.0 2:0.0 
1.0 1:1.0 2:0.0 
1.0 1:1.0 2:0.0 
1.0 1:1.0 2:0.0 
1.0 1:0.0 2:0.0 
1.0 1:1.0 2:0.0 
1.0 1:0.9722222222222222 2:0.02777777777777779 
1.0 1:1.0 2:0.0 
1.0 1:1.0 2:0.0 
1.0 1:0.8091603053435115 2:0.19083969465648853 
1.0 1:1.0 2:0.0 
1.0 1:1.0 2:0.0 
1.0 1:0.9344660194174756 2:0.06553398058252435 
1.0 1:0.8091603053435115 2:0.19083969465648853 
1.0 1:0.8397435897435898 2:0.16025641025641024 
1.0 1:0.8091603053435115 2:0.19083969465648853 
1.0 1:1.0 2:0.0 
1.0 1:1.0 2:0.0 
1.0 1:0.0 2:1.0 
1.0 1:0.9344660194174756 2:0.06553398058252435 
1.0 1:1.0 2:0.0 
1.0 1:1.0 2:0.0 
1.0 1:1.0 2:0.0 
1.0 1:1.0 2:0.0 
1.0 1:0.44247787610619466 2:0.5575221238938053 
1.0 1:0.0 2:0.0 
1.0 1:1.0 2:0.0 
1.0 1:0.0 2:0.0 
1.0 1:0.0 2:0.0 
1.0 1:1.0 2:0.0 
1.0 1:1.0 2:0.0 
1.0 1:1.0 2:0.0 
1.0 1:1.0 2:0.0 
1.0 1:1.0 2:0.0 
1.0 1:1.0 2:0.0 
1.0 1:0.5454545454545454 2:0.4545454545454546 
1.0 1:1.0 2:0.0 
1.0 1:1.0 2:0.0 
1.0 1:1.0 2:0.0 
1.0 1:0.0 2:1.0 
1.0 1:0.0 2:0.0 
1.0 1:0.0 2:0.0 
1.0 1:1.0 2:0.0 
1.0 1:1.0 2:0.0 
1.0 1:1.0 2:0.0 
1.0 1:0.0 2:0.0 
1.0 1:0.55 2:0.44999999999999996 
1.0 1:1.0 2:0.0 
1.0 1:1.0 2:0.0 
1.0 1:0.0 2:0.0 
1.0 1:1.0 2:0.0 
1.0 1:1.0 2:0.0 
1.0 1:0.0 2:1.0 
1.0 1:0.7493606138107417 2:0.2506393861892583 
1.0 1:1.0 2:0.0 
1.0 1:0.0 2:1.0 
1.0 1:1.0 2:0.0 
1.0 1:0.0 2:1.0 
1.0 1:1.0 2:0.0 
1.0 1:1.0 2:0.0 
1.0 1:1.0 2:0.0 
1.0 1:1.0 2:0.0 
1.0 1:1.0 2:0.0 
1.0 1:1.0 2:0.0 
1.0 1:0.0 2:0.0 
1.0 1:0.0 2:0.0 
1.0 1:0.9146341463414634 2:0.08536585365853655 
1.0 1:1.0 2:0.0 
1.0 1:1.0 2:0.0 
1.0 1:0.3 2:0.7 
1.0 1:0.0 2:0.0 
1.0 1:1.0 2:0.0 
1.0 1:1.0 2:0.0 
1.0 1:1.0 2:0.0 
1.0 1:1.0 2:0.0 
1.0 1:1.0 2:0.0 
1.0 1:1.0 2:0.0 
1.0 1:1.0 2:0.0 
1.0 1:1.0 2:0.0 
1.0 1:1.0 2:0.0 
1.0 1:1.0 2:0.0 
1.0 1:1.0 2:0.0 
1.0 1:1.0 2:0.0 
1.0 1:1.0 2:0.0 
1.0 1:1.0 2:0.0 
1.0 1:1.0 2:0.0 
1.0 1:1.0 2:0.0 
1.0 1:1.0 2:0.0 
1.0 1:1.0 2:0.0 
1.0 1:1.0 2:0.0 
1.0 1:1.0 2:0.0 
1.0 1:1.0 2:0.0 
1.0 1:1.0 2:0.0 
1.0 1:1.0 2:0.0 
1.0 1:1.0 2:0.0 
1.0 1:1.0 2:0.0 
1.0 1:0.2727272727272727 2:0.7272727272727273 
1.0 1:0.7021276595744681 2:0.2978723404255319 
1.0 1:1.0 2:0.0 
1.0 1:1.0 2:0.0 
1.0 1:1.0 2:0.0 
1.0 1:1.0 2:0.0 
1.0 1:1.0 2:0.0 
1.0 1:1.0 2:0.0 
1.0 1:1.0 2:0.0 
1.0 1:1.0 2:0.0 
1.0 1:1.0 2:0.0 
1.0 1:1.0 2:0.0 
1.0 1:1.0 2:0.0 
1.0 1:1.0 2:0.0 
1.0 1:1.0 2:0.0 
1.0 1:1.0 2:0.0 
1.0 1:1.0 2:0.0 
1.0 1:0.2727272727272727 2:0.7272727272727273 
1.0 1:0.7021276595744681 2:0.2978723404255319 
1.0 1:1.0 2:0.0 
1.0 1:1.0 2:0.0 
1.0 1:1.0 2:0.0 
1.0 1:1.0 2:0.0 
1.0 1:0.0 2:0.0 
1.0 1:1.0 2:0.0 
1.0 1:1.0 2:0.0 
1.0 1:1.0 2:0.0 
1.0 1:1.0 2:0.0 
1.0 1:1.0 2:0.0 
1.0 1:1.0 2:0.0 
1.0 1:0.75 2:0.25 
1.0 1:1.0 2:0.0 
1.0 1:1.0 2:0.0 
1.0 1:1.0 2:0.0 
1.0 1:0.7058823529411765 2:0.2941176470588235 
1.0 1:1.0 2:0.0 
1.0 1:0.5454545454545454 2:0.4545454545454546 
1.0 1:1.0 2:0.0 
1.0 1:1.0 2:0.0 
1.0 1:1.0 2:0.0 
1.0 1:0.0 2:0.0 
1.0 1:1.0 2:0.0 
1.0 1:0.7692307692307693 2:0.23076923076923073 
1.0 1:1.0 2:0.0 
1.0 1:1.0 2:0.0 
1.0 1:1.0 2:0.0 
1.0 1:0.6666666666666666 2:0.33333333333333337 
1.0 1:1.0 2:0.0 
1.0 1:0.0 2:0.0 
1.0 1:1.0 2:0.0 
1.0 1:0.0 2:0.0 
1.0 1:0.0 2:0.0 
1.0 1:1.0 2:0.0 
1.0 1:1.0 2:0.0 
1.0 1:0.8333333333333334 2:0.16666666666666663 
1.0 1:1.0 2:0.0 
1.0 1:1.0 2:0.0 
1.0 1:0.9184782608695652 2:0.08152173913043481 
1.0 1:1.0 2:0.0 
1.0 1:1.0 2:0.0 
1.0 1:0.0 2:0.0 
1.0 1:1.0 2:0.0 
1.0 1:1.0 2:0.0 
1.0 1:1.0 2:0.0 
1.0 1:0.5714285714285714 2:0.4285714285714286 
1.0 1:1.0 2:0.0 
1.0 1:1.0 2:0.0 
1.0 1:1.0 2:0.0 
1.0 1:1.0 2:0.0 
1.0 1:0.0 2:1.0 
1.0 1:1.0 2:0.0 
1.0 1:0.0 2:1.0 
1.0 1:1.0 2:0.0 
1.0 1:1.0 2:0.0 
1.0 1:1.0 2:0.0 
1.0 1:1.0 2:0.0 
1.0 1:1.0 2:0.0 
1.0 1:1.0 2:0.0 
1.0 1:1.0 2:0.0 
1.0 1:1.0 2:0.0 
1.0 1:1.0 2:0.0 
1.0 1:1.0 2:0.0 
1.0 1:1.0 2:0.0 
1.0 1:1.0 2:0.0 
1.0 1:1.0 2:0.0 
1.0 1:0.0 2:0.0 
1.0 1:1.0 2:0.0 
1.0 1:1.0 2:0.0 
1.0 1:0.0 2:0.0 
1.0 1:1.0 2:0.0 
1.0 1:1.0 2:0.0 
1.0 1:1.0 2:0.0 
1.0 1:1.0 2:0.0 
1.0 1:1.0 2:0.0 
1.0 1:1.0 2:0.0 
1.0 1:1.0 2:0.0 
1.0 1:0.3 2:0.7 
1.0 1:1.0 2:0.0 
1.0 1:1.0 2:0.0 
1.0 1:1.0 2:0.0 
1.0 1:1.0 2:0.0 
1.0 1:1.0 2:0.0 
1.0 1:1.0 2:0.0 
1.0 1:1.0 2:0.0 
1.0 1:0.5 2:0.5 
1.0 1:0.0 2:0.0 
1.0 1:1.0 2:0.0 
1.0 1:1.0 2:0.0 
1.0 1:0.3 2:0.7 
1.0 1:1.0 2:0.0 
1.0 1:0.7575757575757576 2:0.24242424242424243 
1.0 1:1.0 2:0.0 
1.0 1:0.3225806451612903 2:0.6774193548387097 
1.0 1:1.0 2:0.0 
1.0 1:1.0 2:0.0 
1.0 1:1.0 2:0.0 
1.0 1:1.0 2:0.0 
1.0 1:1.0 2:0.0 
1.0 1:1.0 2:0.0 
1.0 1:1.0 2:0.0 
1.0 1:1.0 2:0.0 
1.0 1:0.8898071625344353 2:0.11019283746556474 
1.0 1:1.0 2:0.0 
1.0 1:0.0 2:0.0 
1.0 1:1.0 2:0.0 
1.0 1:0.7727272727272727 2:0.2272727272727273 
1.0 1:1.0 2:0.0 
1.0 1:1.0 2:0.0 
1.0 1:1.0 2:0.0 
1.0 1:1.0 2:0.0 
1.0 1:0.0 2:0.0 
1.0 1:1.0 2:0.0 
1.0 1:0.0 2:1.0 
1.0 1:1.0 2:0.0 
1.0 1:0.0 2:0.0 
1.0 1:1.0 2:0.0 
1.0 1:1.0 2:0.0 
1.0 1:0.5263157894736842 2:0.4736842105263158 
1.0 1:1.0 2:0.0 
1.0 1:0.0 2:0.0 
1.0 1:1.0 2:0.0 
1.0 1:1.0 2:0.0 
1.0 1:0.0 2:0.0 
1.0 1:1.0 2:0.0 
1.0 1:0.8091603053435115 2:0.19083969465648853 
1.0 1:0.375 2:0.625 
1.0 1:1.0 2:0.0 
1.0 1:1.0 2:0.0 
1.0 1:1.0 2:0.0 
1.0 1:1.0 2:0.0 
1.0 1:0.88 2:0.12 
1.0 1:1.0 2:0.0 
1.0 1:1.0 2:0.0 
1.0 1:0.650375939849624 2:0.34962406015037595 
1.0 1:1.0 2:0.0 
1.0 1:1.0 2:0.0 
1.0 1:1.0 2:0.0 
1.0 1:1.0 2:0.0 
1.0 1:1.0 2:0.0 
1.0 1:1.0 2:0.0 
1.0 1:1.0 2:0.0 
1.0 1:1.0 2:0.0 
1.0 1:1.0 2:0.0 
1.0 1:0.6012658227848101 2:0.3987341772151899 
1.0 1:0.8091603053435115 2:0.19083969465648853 
1.0 1:1.0 2:0.0 
1.0 1:1.0 2:0.0 
1.0 1:1.0 2:0.0 
1.0 1:1.0 2:0.0 
1.0 1:1.0 2:0.0 
1.0 1:0.0 2:0.0 
1.0 1:1.0 2:0.0 
1.0 1:0.0 2:0.0 
1.0 1:1.0 2:0.0 
1.0 1:0.5 2:0.5 
1.0 1:1.0 2:0.0 
1.0 1:1.0 2:0.0 
1.0 1:1.0 2:0.0 
1.0 1:0.8091603053435115 2:0.19083969465648853 
1.0 1:1.0 2:0.0 
1.0 1:1.0 2:0.0 
1.0 1:1.0 2:0.0 
1.0 1:0.0 2:0.0 
1.0 1:0.0 2:0.0 
1.0 1:1.0 2:0.0 
1.0 1:1.0 2:0.0 
1.0 1:1.0 2:0.0 
1.0 1:1.0 2:0.0 
1.0 1:1.0 2:0.0 
1.0 1:0.0 2:0.0 
1.0 1:1.0 2:0.0 
1.0 1:1.0 2:0.0 
1.0 1:1.0 2:0.0 
1.0 1:1.0 2:0.0 
1.0 1:1.0 2:0.0 
1.0 1:0.9337748344370861 2:0.06622516556291391 
1.0 1:1.0 2:0.0 
1.0 1:0.0 2:0.0 
1.0 1:1.0 2:0.0 
1.0 1:1.0 2:0.0 
1.0 1:1.0 2:0.0 
1.0 1:1.0 2:0.0 
1.0 1:1.0 2:0.0 
1.0 1:0.8841698841698842 2:0.11583011583011582 
1.0 1:1.0 2:0.0 
1.0 1:1.0 2:0.0 
1.0 1:1.0 2:0.0 
1.0 1:1.0 2:0.0 
1.0 1:0.5349794238683128 2:0.46502057613168724 
1.0 1:0.8888888888888888 2:0.11111111111111116 
1.0 1:0.8841698841698842 2:0.11583011583011582 
1.0 1:0.8888888888888888 2:0.11111111111111116 
1.0 1:0.7777777777777778 2:0.2222222222222222 
1.0 1:1.0 2:0.0 
1.0 1:1.0 2:0.0 
1.0 1:0.625 2:0.375 
1.0 1:1.0 2:0.0 
1.0 1:1.0 2:0.0 
1.0 1:1.0 2:0.0 
1.0 1:1.0 2:0.0 
1.0 1:1.0 2:0.0 
1.0 1:1.0 2:0.0 
1.0 1:1.0 2:0.0 
1.0 1:1.0 2:0.0 
1.0 1:1.0 2:0.0 
1.0 1:1.0 2:0.0 
1.0 1:1.0 2:0.0 
1.0 1:1.0 2:0.0 
1.0 1:0.0 2:1.0 
1.0 1:1.0 2:0.0 
1.0 1:1.0 2:0.0 
1.0 1:0.696969696969697 2:0.303030303030303 
1.0 1:1.0 2:0.0 
1.0 1:0.0 2:0.0 
1.0 1:0.0 2:1.0 
1.0 1:1.0 2:0.0 
1.0 1:1.0 2:0.0 
1.0 1:0.0 2:0.0 
1.0 1:1.0 2:0.0 
1.0 1:1.0 2:0.0 
1.0 1:0.65 2:0.35 
1.0 1:1.0 2:0.0 
1.0 1:1.0 2:0.0 
1.0 1:1.0 2:0.0 
1.0 1:1.0 2:0.0 
1.0 1:0.0 2:0.0 
1.0 1:1.0 2:0.0 
1.0 1:1.0 2:0.0 
1.0 1:0.8 2:0.19999999999999996 
1.0 1:0.9333333333333333 2:0.06666666666666665 
1.0 1:1.0 2:0.0 
1.0 1:0.0 2:0.0 
1.0 1:0.0 2:0.0 
1.0 1:0.8948598130841121 2:0.10514018691588789 
1.0 1:1.0 2:0.0 
1.0 1:1.0 2:0.0 
1.0 1:1.0 2:0.0 
1.0 1:0.8292682926829268 2:0.1707317073170732 
1.0 1:1.0 2:0.0 
1.0 1:1.0 2:0.0 
1.0 1:1.0 2:0.0 
1.0 1:0.0 2:0.0 
1.0 1:1.0 2:0.0 
1.0 1:1.0 2:0.0 
1.0 1:0.0 2:0.0 
1.0 1:1.0 2:0.0 
1.0 1:1.0 2:0.0 
1.0 1:1.0 2:0.0 
1.0 1:0.861878453038674 2:0.13812154696132595 
1.0 1:1.0 2:0.0 
1.0 1:0.6043478260869566 2:0.3956521739130434 
1.0 1:1.0 2:0.0 
1.0 1:1.0 2:0.0 
1.0 1:1.0 2:0.0 
1.0 1:0.0 2:1.0 
1.0 1:1.0 2:0.0 
1.0 1:0.0 2:0.0 
1.0 1:0.8091603053435115 2:0.19083969465648853 
1.0 1:1.0 2:0.0 
1.0 1:0.3333333333333333 2:0.6666666666666667 
1.0 1:0.6164383561643835 2:0.38356164383561653 
1.0 1:1.0 2:0.0 
1.0 1:1.0 2:0.0 
1.0 1:1.0 2:0.0 
1.0 1:1.0 2:0.0 
1.0 1:1.0 2:0.0 
1.0 1:0.0 2:0.0 
1.0 1:1.0 2:0.0 
1.0 1:1.0 2:0.0 
1.0 1:0.0 2:0.0 
1.0 1:1.0 2:0.0 
1.0 1:1.0 2:0.0 
1.0 1:1.0 2:0.0 
1.0 1:1.0 2:0.0 
1.0 1:1.0 2:0.0 
1.0 1:1.0 2:0.0 
1.0 1:1.0 2:0.0 
1.0 1:1.0 2:0.0 
1.0 1:1.0 2:0.0 
1.0 1:1.0 2:0.0 
1.0 1:1.0 2:0.0 
1.0 1:0.8867924528301887 2:0.1132075471698113 
1.0 1:1.0 2:0.0 
1.0 1:1.0 2:0.0 
1.0 1:0.8091603053435115 2:0.19083969465648853 
1.0 1:0.7191011235955056 2:0.2808988764044944 
1.0 1:1.0 2:0.0 
1.0 1:1.0 2:0.0 
1.0 1:1.0 2:0.0 
1.0 1:1.0 2:0.0 
1.0 1:1.0 2:0.0 
1.0 1:1.0 2:0.0 
1.0 1:1.0 2:0.0 
1.0 1:1.0 2:0.0 
1.0 1:0.0 2:0.0 
1.0 1:1.0 2:0.0 
1.0 1:1.0 2:0.0 
1.0 1:1.0 2:0.0 
1.0 1:0.0 2:0.0 
1.0 1:1.0 2:0.0 
1.0 1:0.853658536585366 2:0.14634146341463405 
1.0 1:0.5434782608695652 2:0.4565217391304348 
1.0 1:1.0 2:0.0 
1.0 1:1.0 2:0.0 
1.0 1:1.0 2:0.0 
1.0 1:0.923076923076923 2:0.07692307692307698 
1.0 1:0.923076923076923 2:0.07692307692307698 
1.0 1:1.0 2:0.0 
1.0 1:0.8461538461538461 2:0.15384615384615385 
1.0 1:0.0 2:0.0 
1.0 1:1.0 2:0.0 
1.0 1:1.0 2:0.0 
1.0 1:1.0 2:0.0 
1.0 1:1.0 2:0.0 
1.0 1:1.0 2:0.0 
1.0 1:1.0 2:0.0 
1.0 1:1.0 2:0.0 
1.0 1:0.29411764705882354 2:0.7058823529411764 
1.0 1:0.0 2:0.0 
1.0 1:1.0 2:0.0 
1.0 1:1.0 2:0.0 
0.8557115100591797 1:1.0 2:0.0 
1.0 1:0.4488188976377953 2:0.5511811023622046 
1.0 1:0.625 2:0.375 
1.0 1:0.0 2:1.0 
1.0 1:0.7773851590106007 2:0.22261484098939932 
1.0 1:0.0 2:0.0 
1.0 1:0.0 2:0.0 
1.0 1:0.0 2:0.0 
1.0 1:0.8567335243553008 2:0.1432664756446992 
1.0 1:0.8529411764705882 2:0.1470588235294118 
1.0 1:0.0 2:0.0 
1.0 1:0.0 2:0.0 
1.0 1:0.2783505154639176 2:0.7216494845360824 
1.0 1:0.6503496503496504 2:0.3496503496503496 
1.0 1:0.0 2:0.0 
1.0 1:0.0 2:0.0 
1.0 1:0.0 2:0.0 
1.0 1:0.6666666666666666 2:0.33333333333333337 
1.0 1:0.788135593220339 2:0.211864406779661 
1.0 1:0.6666666666666666 2:0.33333333333333337 
1.0 1:0.0 2:0.0 
1.0 1:0.0 2:0.0 
1.0 1:0.7894736842105263 2:0.21052631578947367 
1.0 1:0.0 2:1.0 
1.0 1:0.7058823529411765 2:0.2941176470588235 
1.0 1:0.21259842519685043 2:0.7874015748031495 
1.0 1:0.6875 2:0.3125 
1.0 1:0.0 2:0.0 
1.0 1:0.8134328358208955 2:0.18656716417910446 
1.0 1:0.0 2:0.0 
1.0 1:0.0 2:0.0 
1.0 1:0.0 2:0.0 
1.0 1:0.0 2:0.0 
1.0 1:0.0 2:0.0 
1.0 1:0.0 2:0.0 
1.0 1:0.0 2:0.0 
0.5706551654916581 1:1.0 2:0.0 
-1.0 1:0.5 2:0.5 
-1.0 1:0.44 2:0.56 
-1.0 1:0.4425087108013937 2:0.5574912891986064 
-1.0 1:1.0 2:0.0 
-1.0 1:0.6389891696750902 2:0.36101083032490977 
-1.0 1:1.0 2:0.0 
-1.0 1:0.7272727272727273 2:0.2727272727272727 
-1.0 1:1.0 2:0.0 
-1.0 1:0.5675675675675675 2:0.43243243243243246 
-1.0 1:1.0 2:0.0 
-1.0 1:0.6976744186046512 2:0.3023255813953488 
-1.0 1:0.7058823529411765 2:0.2941176470588235 
-1.0 1:1.0 2:0.0 
-1.0 1:1.0 2:0.0 
-1.0 1:1.0 2:0.0 
-1.0 1:1.0 2:0.0 
-1.0 1:0.3597122302158273 2:0.6402877697841727 
-1.0 1:0.5169082125603864 2:0.48309178743961356 
-1.0 1:0.75 2:0.25 
-1.0 1:0.5 2:0.5 
-1.0 1:0.75 2:0.25 
-1.0 1:1.0 2:0.0 
-1.0 1:0.6 2:0.4 
-1.0 1:1.0 2:0.0 
-1.0 1:1.0 2:0.0 
-1.0 1:1.0 2:0.0 
-1.0 1:0.5 2:0.5 
-1.0 1:0.5882352941176471 2:0.4117647058823529 
-1.0 1:0.4166666666666667 2:0.5833333333333333 
-1.0 1:1.0 2:0.0 
-1.0 1:1.0 2:0.0 
-1.0 1:1.0 2:0.0 
-1.0 1:0.35064935064935066 2:0.6493506493506493 
-1.0 1:0.4375 2:0.5625 
-1.0 1:1.0 2:0.0 
-1.0 1:1.0 2:0.0 
-1.0 1:0.46153846153846156 2:0.5384615384615384 
-1.0 1:1.0 2:0.0 
-1.0 1:0.38461538461538464 2:0.6153846153846154 
-1.0 1:1.0 2:0.0 
-1.0 1:1.0 2:0.0 
-1.0 1:1.0 2:0.0 
-1.0 1:1.0 2:0.0 
-1.0 1:0.5625 2:0.4375 
-1.0 1:1.0 2:0.0 
-1.0 1:1.0 2:0.0 
-1.0 1:0.7272727272727273 2:0.2727272727272727 
-1.0 1:1.0 2:0.0 
-1.0 1:1.0 2:0.0 
-1.0 1:1.0 2:0.0 
-1.0 1:1.0 2:0.0 
-1.0 1:1.0 2:0.0 
-1.0 1:1.0 2:0.0 
-1.0 1:1.0 2:0.0 
-1.0 1:1.0 2:0.0 
-1.0 1:1.0 2:0.0 
-1.0 1:0.7058823529411765 2:0.2941176470588235 
-1.0 1:1.0 2:0.0 
-1.0 1:1.0 2:0.0 
-1.0 1:1.0 2:0.0 
-1.0 1:1.0 2:0.0 
-1.0 1:0.3937007874015748 2:0.6062992125984252 
-1.0 1:1.0 2:0.0 
-1.0 1:1.0 2:0.0 
-1.0 1:1.0 2:0.0 
-1.0 1:1.0 2:0.0 
-1.0 1:0.53125 2:0.46875 
-1.0 1:1.0 2:0.0 
-1.0 1:1.0 2:0.0 
-1.0 1:0.631578947368421 2:0.368421052631579 
-1.0 1:0.8888888888888888 2:0.11111111111111116 
-1.0 1:0.5882352941176471 2:0.4117647058823529 
-1.0 1:0.45454545454545453 2:0.5454545454545454 
-1.0 1:1.0 2:0.0 
-1.0 1:1.0 2:0.0 
-1.0 1:1.0 2:0.0 
-1.0 1:1.0 2:0.0 
-1.0 1:1.0 2:0.0 
-1.0 1:1.0 2:0.0 
-1.0 1:0.4117647058823529 2:0.5882352941176471 
-1.0 1:1.0 2:0.0 
-1.0 1:0.8888888888888888 2:0.11111111111111116 
-1.0 1:0.6428571428571429 2:0.3571428571428571 
-1.0 1:1.0 2:0.0 
-1.0 1:0.6666666666666666 2:0.33333333333333337 
-1.0 1:1.0 2:0.0 
-1.0 1:1.0 2:0.0 
-1.0 1:1.0 2:0.0 
-1.0 1:1.0 2:0.0 
-1.0 1:1.0 2:0.0 
-1.0 1:0.75 2:0.25 
-1.0 1:1.0 2:0.0 
-1.0 1:1.0 2:0.0 
-1.0 1:0.375 2:0.625 
-1.0 1:0.5 2:0.5 
-1.0 1:1.0 2:0.0 
-1.0 1:0.5625 2:0.4375 
-1.0 1:0.7547169811320754 2:0.24528301886792458 
-1.0 1:0.5833333333333334 2:0.41666666666666663 
-1.0 1:1.0 2:0.0 
-1.0 1:0.44247787610619466 2:0.5575221238938053 
-1.0 1:1.0 2:0.0 
-1.0 1:1.0 2:0.0 
-1.0 1:0.44247787610619466 2:0.5575221238938053 
-1.0 1:1.0 2:0.0 
-1.0 1:1.0 2:0.0 
-1.0 1:0.625 2:0.375 
-1.0 1:1.0 2:0.0 
-1.0 1:1.0 2:0.0 
-1.0 1:1.0 2:0.0 
-1.0 1:1.0 2:0.0 
-1.0 1:0.5652173913043478 2:0.4347826086956522 
-1.0 1:0.5714285714285714 2:0.4285714285714286 
-1.0 1:1.0 2:0.0 
-1.0 1:0.782608695652174 2:0.21739130434782605 
-1.0 1:0.45454545454545453 2:0.5454545454545454 
-1.0 1:0.875 2:0.125 
-1.0 1:1.0 2:0.0 
-1.0 1:0.4166666666666667 2:0.5833333333333333 
-1.0 1:1.0 2:0.0 
-1.0 1:0.5 2:0.5 
-1.0 1:0.4166666666666667 2:0.5833333333333333 
-1.0 1:1.0 2:0.0 
-1.0 1:0.5454545454545454 2:0.4545454545454546 
-1.0 1:0.588235294117647 2:0.41176470588235303 
-1.0 1:1.0 2:0.0 
-1.0 1:1.0 2:0.0 
-1.0 1:0.7058823529411765 2:0.2941176470588235 
-1.0 1:0.4166666666666667 2:0.5833333333333333 
-1.0 1:0.5652173913043478 2:0.4347826086956522 
-1.0 1:0.5555555555555556 2:0.4444444444444444 
-1.0 1:0.7846153846153846 2:0.2153846153846154 
-1.0 1:1.0 2:0.0 
-1.0 1:0.8333333333333334 2:0.16666666666666663 
-1.0 1:1.0 2:0.0 
-1.0 1:1.0 2:0.0 
-1.0 1:1.0 2:0.0 
-1.0 1:0.625 2:0.375 
-1.0 1:1.0 2:0.0 
-1.0 1:0.5 2:0.5 
-1.0 1:1.0 2:0.0 
-1.0 1:1.0 2:0.0 
-1.0 1:0.5789473684210527 2:0.42105263157894735 
-1.0 1:0.6976744186046512 2:0.3023255813953488 
-1.0 1:1.0 2:0.0 
-1.0 1:1.0 2:0.0 
-1.0 1:0.3577981651376147 2:0.6422018348623852 
-1.0 1:1.0 2:0.0 
-1.0 1:0.6428571428571429 2:0.3571428571428571 
-1.0 1:1.0 2:0.0 
-1.0 1:1.0 2:0.0 
-1.0 1:0.7 2:0.30000000000000004 
-1.0 1:1.0 2:0.0 
-1.0 1:1.0 2:0.0 
-1.0 1:1.0 2:0.0 
-1.0 1:1.0 2:0.0 
-1.0 1:1.0 2:0.0 
-1.0 1:1.0 2:0.0 
-1.0 1:1.0 2:0.0 
-1.0 1:1.0 2:0.0 
-1.0 1:1.0 2:0.0 
-1.0 1:1.0 2:0.0 
-1.0 1:1.0 2:0.0 
-1.0 1:0.49723756906077343 2:0.5027624309392266 
-1.0 1:1.0 2:0.0 
-1.0 1:1.0 2:0.0 
-1.0 1:0.8333333333333334 2:0.16666666666666663 
-1.0 1:1.0 2:0.0 
-1.0 1:1.0 2:0.0 
-1.0 1:1.0 2:0.0 
-1.0 1:0.6402877697841727 2:0.3597122302158273 
-1.0 1:0.935251798561151 2:0.06474820143884896 
-1.0 1:1.0 2:0.0 
-1.0 1:0.4666666666666667 2:0.5333333333333333 
-1.0 1:1.0 2:0.0 
-1.0 1:0.7368421052631579 2:0.26315789473684215 
-1.0 1:1.0 2:0.0 
-1.0 1:0.6976744186046512 2:0.3023255813953488 
-1.0 1:1.0 2:0.0 
-1.0 1:0.6976744186046512 2:0.3023255813953488 
-1.0 1:0.6428571428571429 2:0.3571428571428571 
-1.0 1:0.625 2:0.375 
-1.0 1:1.0 2:0.0 
-1.0 1:0.3973509933774835 2:0.6026490066225165 
-1.0 1:0.5 2:0.5 
-1.0 1:1.0 2:0.0 
-1.0 1:0.3684210526315789 2:0.631578947368421 
-1.0 1:0.559748427672956 2:0.44025157232704404 
-1.0 1:1.0 2:0.0 
-1.0 1:0.8 2:0.19999999999999996 
-1.0 1:0.3546099290780142 2:0.6453900709219857 
-1.0 1:0.43478260869565216 2:0.5652173913043479 
-1.0 1:0.625 2:0.375 
-1.0 1:1.0 2:0.0 
-1.0 1:0.5 2:0.5 
-1.0 1:0.5882352941176471 2:0.4117647058823529 
-1.0 1:0.46153846153846156 2:0.5384615384615384 
-1.0 1:0.3546099290780142 2:0.6453900709219857 
-1.0 1:0.8125 2:0.1875 
-1.0 1:1.0 2:0.0 
-1.0 1:1.0 2:0.0 
-1.0 1:1.0 2:0.0 
-1.0 1:1.0 2:0.0 
-1.0 1:1.0 2:0.0 
-1.0 1:1.0 2:0.0 
-1.0 1:1.0 2:0.0 
-1.0 1:0.625 2:0.375 
-1.0 1:0.625 2:0.375 
-1.0 1:1.0 2:0.0 
-1.0 1:1.0 2:0.0 
-1.0 1:0.7500000000000001 2:0.2499999999999999 
-1.0 1:1.0 2:0.0 
-1.0 1:0.5050505050505051 2:0.4949494949494949 
-1.0 1:0.4117647058823529 2:0.5882352941176471 
-1.0 1:0.6153846153846154 2:0.3846153846153846 
-1.0 1:1.0 2:0.0 
-1.0 1:1.0 2:0.0 
-1.0 1:1.0 2:0.0 
-1.0 1:1.0 2:0.0 
-1.0 1:1.0 2:0.0 
-1.0 1:1.0 2:0.0 
-1.0 1:1.0 2:0.0 
-1.0 1:1.0 2:0.0 
-1.0 1:1.0 2:0.0 
-1.0 1:1.0 2:0.0 
-1.0 1:1.0 2:0.0 
-1.0 1:1.0 2:0.0 
-1.0 1:1.0 2:0.0 
-1.0 1:1.0 2:0.0 
-1.0 1:1.0 2:0.0 
-1.0 1:1.0 2:0.0 
-1.0 1:1.0 2:0.0 
-1.0 1:1.0 2:0.0 
-1.0 1:1.0 2:0.0 
-1.0 1:1.0 2:0.0 
-1.0 1:1.0 2:0.0 
-1.0 1:1.0 2:0.0 
-1.0 1:1.0 2:0.0 
-1.0 1:1.0 2:0.0 
-1.0 1:1.0 2:0.0 
-1.0 1:0.5 2:0.5 
-1.0 1:1.0 2:0.0 
-1.0 1:0.375 2:0.625 
-1.0 1:0.7547169811320754 2:0.24528301886792458 
-1.0 1:0.7 2:0.30000000000000004 
-1.0 1:0.7 2:0.30000000000000004 
-1.0 1:0.7 2:0.30000000000000004 
-1.0 1:1.0 2:0.0 
-1.0 1:1.0 2:0.0 
-1.0 1:1.0 2:0.0 
-1.0 1:1.0 2:0.0 
-1.0 1:1.0 2:0.0 
-1.0 1:1.0 2:0.0 
-1.0 1:1.0 2:0.0 
-1.0 1:1.0 2:0.0 
-1.0 1:0.5319148936170213 2:0.46808510638297873 
-1.0 1:0.6666666666666666 2:0.33333333333333337 
-1.0 1:1.0 2:0.0 
-1.0 1:1.0 2:0.0 
-1.0 1:0.5294117647058824 2:0.47058823529411764 
-1.0 1:1.0 2:0.0 
-1.0 1:0.4166666666666667 2:0.5833333333333333 
-1.0 1:0.5555555555555555 2:0.44444444444444453 
-1.0 1:1.0 2:0.0 
-1.0 1:1.0 2:0.0 
-1.0 1:1.0 2:0.0 
-1.0 1:1.0 2:0.0 
-1.0 1:0.4716981132075471 2:0.5283018867924529 
-1.0 1:1.0 2:0.0 
-1.0 1:0.5882352941176471 2:0.4117647058823529 
-1.0 1:1.0 2:0.0 
-1.0 1:0.5833333333333334 2:0.41666666666666663 
-1.0 1:0.7727272727272727 2:0.2272727272727273 
-1.0 1:1.0 2:0.0 
-1.0 1:0.9417040358744394 2:0.058295964125560595 
-1.0 1:1.0 2:0.0 
-1.0 1:1.0 2:0.0 
-1.0 1:1.0 2:0.0 
-1.0 1:0.7881773399014778 2:0.21182266009852224 
-1.0 1:1.0 2:0.0 
-1.0 1:0.5833333333333334 2:0.41666666666666663 
-1.0 1:1.0 2:0.0 
-1.0 1:1.0 2:0.0 
-1.0 1:1.0 2:0.0 
-1.0 1:0.625 2:0.375 
-1.0 1:0.5 2:0.5 
-1.0 1:1.0 2:0.0 
-1.0 1:1.0 2:0.0 
-1.0 1:0.625 2:0.375 
-1.0 1:1.0 2:0.0 
-1.0 1:1.0 2:0.0 
-1.0 1:0.5882352941176471 2:0.4117647058823529 
-1.0 1:1.0 2:0.0 
-1.0 1:1.0 2:0.0 
-1.0 1:1.0 2:0.0 
-1.0 1:0.7005988023952096 2:0.29940119760479045 
-1.0 1:1.0 2:0.0 
-1.0 1:1.0 2:0.0 
-1.0 1:1.0 2:0.0 
-1.0 1:1.0 2:0.0 
-1.0 1:0.875 2:0.125 
-1.0 1:0.5 2:0.5 
-1.0 1:1.0 2:0.0 
-1.0 1:0.7 2:0.30000000000000004 
-1.0 1:1.0 2:0.0 
-1.0 1:0.4291845493562232 2:0.5708154506437768 
-1.0 1:1.0 2:0.0 
-1.0 1:0.8333333333333334 2:0.16666666666666663 
-1.0 1:1.0 2:0.0 
-1.0 1:0.43820224719101125 2:0.5617977528089888 
-1.0 1:0.6183206106870229 2:0.38167938931297707 
-0.3376655565839492 1:0.0 2:0.0 
-1.0 1:0.0 2:0.0 
-1.0 1:1.0 2:0.0 
-0.40605746411111615 1:0.0 2:1.0 
-1.0 1:0.0 2:1.0 
-1.0 1:0.8235294117647058 2:0.17647058823529416 
-1.0 1:0.375 2:0.625 
-1.0 1:0.5 2:0.5 
-1.0 1:0.5 2:0.5 
-1.0 1:1.0 2:0.0 
-1.0 1:0.6493506493506493 2:0.35064935064935066 
-1.0 1:0.375 2:0.625 
-1.0 1:0.4 2:0.6 
-1.0 1:1.0 2:0.0 
-1.0 1:0.5235602094240838 2:0.47643979057591623 
-1.0 1:1.0 2:0.0 
-1.0 1:1.0 2:0.0 
-1.0 1:0.5235602094240838 2:0.47643979057591623 
-1.0 1:1.0 2:0.0 
-1.0 1:1.0 2:0.0 
-1.0 1:0.43820224719101125 2:0.5617977528089888 
-1.0 1:1.0 2:0.0 
-1.0 1:1.0 2:0.0 
-1.0 1:1.0 2:0.0 
-1.0 1:0.8846153846153846 2:0.11538461538461542 
-1.0 1:1.0 2:0.0 
-1.0 1:1.0 2:0.0 
-1.0 1:0.6582278481012658 2:0.3417721518987342 
-1.0 1:1.0 2:0.0 
-1.0 1:1.0 2:0.0 
-1.0 1:1.0 2:0.0 
-1.0 1:1.0 2:0.0 
-1.0 1:1.0 2:0.0 
-1.0 1:0.5263157894736842 2:0.4736842105263158 
-1.0 1:1.0 2:0.0 
-1.0 1:0.7487437185929648 2:0.25125628140703515 
-1.0 1:0.6346153846153846 2:0.3653846153846154 
-1.0 1:1.0 2:0.0 
-1.0 1:0.5882352941176471 2:0.4117647058823529 
-1.0 1:1.0 2:0.0 
-1.0 1:1.0 2:0.0 
-1.0 1:0.44247787610619466 2:0.5575221238938053 
-1.0 1:1.0 2:0.0 
-1.0 1:0.46153846153846156 2:0.5384615384615384 
-1.0 1:0.625 2:0.375 
-1.0 1:0.6060606060606061 2:0.3939393939393939 
-1.0 1:0.5 2:0.5 
-1.0 1:1.0 2:0.0 
-1.0 1:0.6666666666666666 2:0.33333333333333337 
-1.0 1:0.5294117647058824 2:0.47058823529411764 
-1.0 1:0.7727272727272727 2:0.2272727272727273 
-1.0 1:0.46153846153846156 2:0.5384615384615384 
-1.0 1:1.0 2:0.0 
-1.0 1:0.48148148148148145 2:0.5185185185185186 
-1.0 1:0.45454545454545453 2:0.5454545454545454 
-1.0 1:1.0 2:0.0 
-1.0 1:1.0 2:0.0 
-1.0 1:0.5555555555555556 2:0.4444444444444444 
-1.0 1:0.5 2:0.5 
-1.0 1:1.0 2:0.0 
-1.0 1:0.5555555555555556 2:0.4444444444444444 
-1.0 1:0.5 2:0.5 
-1.0 1:0.625 2:0.375 
-1.0 1:0.4166666666666667 2:0.5833333333333333 
-1.0 1:1.0 2:0.0 
-1.0 1:0.5633802816901409 2:0.43661971830985913 
-1.0 1:0.625 2:0.375 
-1.0 1:1.0 2:0.0 
-1.0 1:1.0 2:0.0 
-1.0 1:1.0 2:0.0 
-1.0 1:1.0 2:0.0 
-1.0 1:1.0 2:0.0 
-1.0 1:1.0 2:0.0 
-1.0 1:1.0 2:0.0 
-1.0 1:0.5185185185185185 2:0.4814814814814815 
-1.0 1:0.375 2:0.625 
-1.0 1:1.0 2:0.0 
-1.0 1:1.0 2:0.0 
-1.0 1:0.6296296296296297 2:0.37037037037037035 
-1.0 1:1.0 2:0.0 
-1.0 1:1.0 2:0.0 
-1.0 1:1.0 2:0.0 
-1.0 1:1.0 2:0.0 
-1.0 1:0.42857142857142855 2:0.5714285714285714 
-1.0 1:1.0 2:0.0 
-1.0 1:1.0 2:0.0 
-1.0 1:0.5294117647058824 2:0.47058823529411764 
-1.0 1:1.0 2:0.0 
-1.0 1:1.0 2:0.0 
-1.0 1:1.0 2:0.0 
-1.0 1:1.0 2:0.0 
-1.0 1:1.0 2:0.0 
-1.0 1:0.6 2:0.4 
-1.0 1:1.0 2:0.0 
-1.0 1:1.0 2:0.0 
-1.0 1:1.0 2:0.0 
-1.0 1:0.5 2:0.5 
-1.0 1:0.5172413793103449 2:0.48275862068965514 
-1.0 1:1.0 2:0.0 
-1.0 1:0.5625 2:0.4375 
-1.0 1:0.6134969325153374 2:0.38650306748466257 
-1.0 1:0.6666666666666666 2:0.33333333333333337 
-1.0 1:1.0 2:0.0 
-1.0 1:0.3529411764705882 2:0.6470588235294118 
-1.0 1:1.0 2:0.0 
-1.0 1:0.625 2:0.375 
-1.0 1:1.0 2:0.0 
-1.0 1:1.0 2:0.0 
-1.0 1:1.0 2:0.0 
-1.0 1:1.0 2:0.0 
-1.0 1:1.0 2:0.0 
-1.0 1:1.0 2:0.0 
-1.0 1:0.7868852459016394 2:0.21311475409836056 
-1.0 1:1.0 2:0.0 
-1.0 1:1.0 2:0.0 
-1.0 1:1.0 2:0.0 
-1.0 1:1.0 2:0.0 
-1.0 1:1.0 2:0.0 
-1.0 1:1.0 2:0.0 
-1.0 1:1.0 2:0.0 
-1.0 1:0.875 2:0.125 
-1.0 1:1.0 2:0.0 
-1.0 1:1.0 2:0.0 
-1.0 1:1.0 2:0.0 
-1.0 1:1.0 2:0.0 
-1.0 1:1.0 2:0.0 
-0.6826436548557724 1:0.34965034965034963 2:0.6503496503496504 
-1.0 1:0.4716981132075471 2:0.5283018867924529 
-1.0 1:0.3793103448275862 2:0.6206896551724138 
-1.0 1:0.4128440366972478 2:0.5871559633027522 
-1.0 1:0.5 2:0.5 
-1.0 1:0.5 2:0.5 
-1.0 1:1.0 2:0.0 
-1.0 1:1.0 2:0.0 
-1.0 1:0.5454545454545454 2:0.4545454545454546 
-1.0 1:1.0 2:0.0 
-1.0 1:0.625 2:0.375 
-1.0 1:0.5 2:0.5 
-1.0 1:1.0 2:0.0 
-1.0 1:1.0 2:0.0 
-1.0 1:0.72 2:0.28 
-1.0 1:0.5555555555555556 2:0.4444444444444444 
-1.0 1:1.0 2:0.0 
-1.0 1:0.0 2:0.0 
-1.0 1:0.0 2:0.0 
-1.0 1:0.0 2:0.0 
-1.0 1:0.0 2:0.0 
-1.0 1:0.7222222222222222 2:0.2777777777777778 
-1.0 1:0.0 2:0.0 
-1.0 1:0.0 2:0.0 
-1.0 1:1.0 2:0.0 
-1.0 1:0.0 2:0.0 
-1.0 1:0.0 2:0.0 
-1.0 1:0.0 2:0.0 
-1.0 1:0.0 2:0.0 
-1.0 1:0.0 2:0.0 
-1.0 1:0.0 2:0.0 
-1.0 1:0.0 2:0.0 
-1.0 1:0.5 2:0.5 
-1.0 1:0.0 2:0.0 
-1.0 1:1.0 2:0.0 
-1.0 1:0.0 2:0.0 
-1.0 1:0.0 2:0.0 
-1.0 1:0.0 2:0.0 
-1.0 1:0.0 2:0.0 
-1.0 1:1.0 2:0.0 
-1.0 1:1.0 2:0.0 
-1.0 1:0.0 2:0.0 
-1.0 1:1.0 2:0.0 
-1.0 1:0.9230769230769231 2:0.07692307692307687 
-1.0 1:1.0 2:0.0 
-1.0 1:1.0 2:0.0 
-1.0 1:0.0 2:0.0 
-1.0 1:0.0 2:0.0 
-1.0 1:0.0 2:0.0 
-1.0 1:0.0 2:0.0 
-1.0 1:1.0 2:0.0 
-1.0 1:0.0 2:0.0 
-1.0 1:0.0 2:0.0 
-1.0 1:0.0 2:0.0 
-1.0 1:0.0 2:0.0 
-1.0 1:0.0 2:0.0 
-1.0 1:0.0 2:0.0 
-1.0 1:0.0 2:0.0 
-1.0 1:0.0 2:0.0 
-1.0 1:1.0 2:0.0 
-1.0 1:0.0 2:0.0 
-1.0 1:0.0 2:0.0 
-1.0 1:0.0 2:0.0 
-1.0 1:1.0 2:0.0 
-1.0 1:0.0 2:0.0 
-1.0 1:0.5389221556886227 2:0.4610778443113773 
-1.0 1:1.0 2:0.0 
-1.0 1:1.0 2:0.0 
-1.0 1:0.0 2:0.0 
-1.0 1:0.0 2:0.0 
-1.0 1:0.0 2:0.0 
-1.0 1:1.0 2:0.0 
-1.0 1:0.46153846153846156 2:0.5384615384615384 
-1.0 1:0.0 2:0.0 
-1.0 1:0.0 2:0.0 
-1.0 1:0.0 2:0.0 
-1.0 1:0.0 2:0.0 
-1.0 1:0.0 2:0.0 
-1.0 1:0.0 2:0.0 
-1.0 1:0.7692307692307693 2:0.23076923076923073 
-1.0 1:0.0 2:0.0 
-1.0 1:1.0 2:0.0 
-1.0 1:1.0 2:0.0 
-1.0 1:0.0 2:0.0 
-1.0 1:1.0 2:0.0 
-1.0 1:0.0 2:0.0 
-1.0 1:0.5263157894736842 2:0.4736842105263158 
-1.0 1:0.0 2:0.0 
-1.0 1:1.0 2:0.0 
-1.0 1:0.0 2:0.0 
-1.0 1:0.0 2:0.0 
-1.0 1:0.35135135135135137 2:0.6486486486486487 
-1.0 1:0.0 2:0.0 
-1.0 1:0.0 2:0.0 
-1.0 1:1.0 2:0.0 
-1.0 1:0.44247787610619466 2:0.5575221238938053 
-1.0 1:0.0 2:0.0 
-1.0 1:0.0 2:0.0 
-1.0 1:1.0 2:0.0 
-1.0 1:0.0 2:0.0 
-1.0 1:0.0 2:0.0 
-1.0 1:0.0 2:0.0 
-1.0 1:1.0 2:0.0 
-1.0 1:0.0 2:0.0 
-1.0 1:0.0 2:0.0 
-1.0 1:0.0 2:0.0 
-1.0 1:1.0 2:0.0 
-1.0 1:1.0 2:0.0 
-1.0 1:0.0 2:0.0 
-1.0 1:1.0 2:0.0 
-1.0 1:0.625 2:0.375 
-1.0 1:1.0 2:0.0 
-1.0 1:0.0 2:0.0 
-1.0 1:0.3684210526315789 2:0.631578947368421 
-1.0 1:0.0 2:0.0 
-1.0 1:0.0 2:0.0 
-1.0 1:1.0 2:0.0 
-1.0 1:0.0 2:0.0 
-1.0 1:1.0 2:0.0 
-1.0 1:1.0 2:0.0 
-1.0 1:0.5882352941176471 2:0.4117647058823529 
-1.0 1:0.0 2:0.0 
-1.0 1:0.0 2:0.0 
-1.0 1:0.0 2:0.0 
-1.0 1:1.0 2:0.0 
-1.0 1:1.0 2:0.0 
-1.0 1:0.0 2:0.0 
-1.0 1:1.0 2:0.0 
-1.0 1:0.0 2:0.0 
-1.0 1:1.0 2:0.0 
-1.0 1:1.0 2:0.0 
-1.0 1:1.0 2:0.0 
-1.0 1:0.0 2:0.0 
-1.0 1:0.4166666666666667 2:0.5833333333333333 
-1.0 1:1.0 2:0.0 
-1.0 1:1.0 2:0.0 
-1.0 1:0.0 2:0.0 
-1.0 1:1.0 2:0.0 
-1.0 1:0.0 2:0.0 
-1.0 1:0.631578947368421 2:0.368421052631579 
-1.0 1:1.0 2:0.0 
-1.0 1:1.0 2:0.0 
-1.0 1:0.0 2:0.0 
-1.0 1:0.0 2:0.0 
-1.0 1:1.0 2:0.0 
-1.0 1:0.0 2:0.0 
-1.0 1:0.0 2:0.0 
-1.0 1:0.0 2:0.0 
-1.0 1:1.0 2:0.0 
-1.0 1:0.0 2:0.0 
-1.0 1:0.46153846153846156 2:0.5384615384615384 
-1.0 1:0.7142857142857143 2:0.2857142857142857 
-1.0 1:1.0 2:0.0 
-1.0 1:0.0 2:0.0 
-1.0 1:1.0 2:0.0 
-1.0 1:0.0 2:0.0 
-1.0 1:0.5 2:0.5 
-1.0 1:1.0 2:0.0 
-1.0 1:0.5 2:0.5 
-1.0 1:0.5384615384615384 2:0.46153846153846156 
-1.0 1:0.0 2:0.0 
-1.0 1:0.0 2:0.0 
-1.0 1:1.0 2:0.0 
-1.0 1:0.7692307692307693 2:0.23076923076923073 
-1.0 1:0.0 2:0.0 
-1.0 1:0.0 2:0.0 
-1.0 1:0.0 2:0.0 
-1.0 1:0.0 2:0.0 
-1.0 1:1.0 2:0.0 
-1.0 1:0.0 2:0.0 
-1.0 1:0.0 2:0.0 
-1.0 1:0.625 2:0.375 
-1.0 1:0.625 2:0.375 
-1.0 1:0.0 2:0.0 
-1.0 1:1.0 2:0.0 
-1.0 1:0.0 2:0.0 
-1.0 1:0.0 2:0.0 
-1.0 1:0.0 2:0.0 
-1.0 1:0.0 2:0.0 
-1.0 1:0.0 2:0.0 
-1.0 1:0.875 2:0.125 
-1.0 1:1.0 2:0.0 
-1.0 1:1.0 2:0.0 
-1.0 1:1.0 2:0.0 
-1.0 1:0.625 2:0.375 
-1.0 1:0.625 2:0.375 
-1.0 1:0.0 2:0.0 
-1.0 1:1.0 2:0.0 
-1.0 1:0.0 2:0.0 
-1.0 1:0.0 2:0.0 
-1.0 1:0.0 2:0.0 
-1.0 1:0.0 2:0.0 
-1.0 1:0.0 2:0.0 
-1.0 1:0.875 2:0.125 
-1.0 1:1.0 2:0.0 
-1.0 1:1.0 2:0.0 
-1.0 1:1.0 2:0.0 
-1.0 1:0.0 2:0.0 
-1.0 1:0.625 2:0.375 
-1.0 1:1.0 2:0.0 
-1.0 1:0.0 2:0.0 
-1.0 1:0.0 2:0.0 
-1.0 1:0.0 2:0.0 
-1.0 1:0.0 2:0.0 
-1.0 1:0.0 2:0.0 
-1.0 1:0.0 2:0.0 
-1.0 1:0.9090909090909091 2:0.09090909090909094 
-1.0 1:1.0 2:0.0 
-1.0 1:0.0 2:0.0 
-1.0 1:1.0 2:0.0 
-1.0 1:0.0 2:0.0 
-1.0 1:0.0 2:0.0 
-1.0 1:0.0 2:0.0 
-1.0 1:0.0 2:0.0 
-1.0 1:0.0 2:0.0 
-1.0 1:1.0 2:0.0 
-1.0 1:0.8484848484848485 2:0.1515151515151515 
-1.0 1:0.0 2:0.0 
-1.0 1:1.0 2:0.0 
-1.0 1:1.0 2:0.0 
-1.0 1:0.0 2:0.0 
-1.0 1:0.0 2:0.0 
-1.0 1:0.0 2:0.0 
-1.0 1:0.7936507936507937 2:0.20634920634920628 
-1.0 1:1.0 2:0.0 
-1.0 1:1.0 2:0.0 
-1.0 1:0.5744680851063829 2:0.4255319148936171 
-1.0 1:1.0 2:0.0 
-1.0 1:0.0 2:0.0 
-1.0 1:1.0 2:0.0 
-1.0 1:0.0 2:0.0 
-1.0 1:0.0 2:0.0 
-1.0 1:0.0 2:0.0 
-1.0 1:0.42944785276073616 2:0.5705521472392638 
-1.0 1:0.5833333333333334 2:0.41666666666666663 
-1.0 1:1.0 2:0.0 
-1.0 1:1.0 2:0.0 
-1.0 1:0.6818181818181818 2:0.31818181818181823 
-1.0 1:0.0 2:0.0 
-1.0 1:1.0 2:0.0 
-1.0 1:1.0 2:0.0 
-1.0 1:1.0 2:0.0 
-1.0 1:1.0 2:0.0 
-1.0 1:0.7222222222222222 2:0.2777777777777778 
-1.0 1:0.0 2:0.0 
-1.0 1:0.0 2:0.0 
-1.0 1:0.0 2:0.0 
-1.0 1:1.0 2:0.0 
-1.0 1:0.0 2:0.0 
-1.0 1:1.0 2:0.0 
-1.0 1:1.0 2:0.0 
-1.0 1:1.0 2:0.0 
-1.0 1:1.0 2:0.0 
-1.0 1:0.45454545454545453 2:0.5454545454545454 
-1.0 1:0.0 2:0.0 
-1.0 1:0.5 2:0.5 
-1.0 1:0.8636363636363636 2:0.13636363636363635 
-1.0 1:1.0 2:0.0 
-1.0 1:0.0 2:0.0 
-1.0 1:0.0 2:0.0 
-1.0 1:1.0 2:0.0 
-1.0 1:0.0 2:0.0 
-1.0 1:0.0 2:0.0 
-1.0 1:0.0 2:0.0 
-1.0 1:1.0 2:0.0 
-1.0 1:0.0 2:0.0 
-1.0 1:1.0 2:0.0 
-1.0 1:0.8695652173913043 2:0.13043478260869568 
-1.0 1:0.0 2:0.0 
-1.0 1:1.0 2:0.0 
-1.0 1:0.0 2:0.0 
-1.0 1:0.5617977528089887 2:0.4382022471910113 
-1.0 1:0.0 2:0.0 
-1.0 1:0.0 2:0.0 
-1.0 1:1.0 2:0.0 
-1.0 1:0.0 2:0.0 
-1.0 1:0.379746835443038 2:0.620253164556962 
-1.0 1:0.0 2:0.0 
-1.0 1:0.5333333333333333 2:0.4666666666666667 
-1.0 1:1.0 2:0.0 
-1.0 1:0.7 2:0.30000000000000004 
-1.0 1:0.0 2:0.0 
-1.0 1:0.5625 2:0.4375 
-1.0 1:0.0 2:0.0 
-1.0 1:0.0 2:0.0 
-1.0 1:0.0 2:0.0 
-1.0 1:0.0 2:0.0 
-1.0 1:0.0 2:0.0 
-1.0 1:0.0 2:0.0 
-1.0 1:0.7058823529411765 2:0.2941176470588235 
-1.0 1:1.0 2:0.0 
-1.0 1:0.0 2:0.0 
-1.0 1:1.0 2:0.0 
-1.0 1:0.5789473684210527 2:0.42105263157894735 
-1.0 1:0.6976744186046512 2:0.3023255813953488 
-1.0 1:0.0 2:0.0 
-1.0 1:1.0 2:0.0 
-1.0 1:0.0 2:0.0 
-1.0 1:0.0 2:0.0 
-1.0 1:0.0 2:0.0 
-1.0 1:1.0 2:0.0 
-1.0 1:0.0 2:0.0 
-1.0 1:0.0 2:0.0 
-1.0 1:0.0 2:0.0 
-1.0 1:0.3577981651376147 2:0.6422018348623852 
-1.0 1:0.0 2:1.0 
-1.0 1:0.5833333333333334 2:0.41666666666666663 
-1.0 1:0.0 2:0.0 
-1.0 1:1.0 2:0.0 
-1.0 1:0.0 2:1.0 
-1.0 1:0.0 2:0.0 
-1.0 1:0.5349794238683128 2:0.46502057613168724 
-1.0 1:0.0 2:1.0 
-1.0 1:0.0 2:0.0 
-1.0 1:1.0 2:0.0 
-1.0 1:0.0 2:1.0 
-1.0 1:0.0 2:0.0 
-1.0 1:0.0 2:0.0 
-1.0 1:0.0 2:0.0 
-1.0 1:0.0 2:0.0 
-1.0 1:0.0 2:0.0 
-1.0 1:1.0 2:0.0 
-1.0 1:0.0 2:1.0 
-1.0 1:1.0 2:0.0 
-1.0 1:0.0 2:0.0 
-1.0 1:0.0 2:1.0 
-1.0 1:0.0 2:1.0 
-1.0 1:1.0 2:0.0 
-1.0 1:0.0 2:0.0 
-1.0 1:0.0 2:0.0 
-1.0 1:0.0 2:0.0 
-1.0 1:0.6551724137931034 2:0.3448275862068966 
-1.0 1:0.0 2:1.0 
-1.0 1:0.0 2:1.0 
-1.0 1:0.0 2:1.0 
-1.0 1:0.7802197802197802 2:0.21978021978021978 
-1.0 1:0.0 2:0.0 
-1.0 1:0.0 2:0.0 
-1.0 1:0.0 2:0.0 
-1.0 1:0.0 2:0.0 
-1.0 1:0.0 2:0.0 
-1.0 1:0.809384164222874 2:0.19061583577712604 
-1.0 1:1.0 2:0.0 
-1.0 1:0.8333333333333334 2:0.16666666666666663 
-1.0 1:0.75 2:0.25 
-1.0 1:0.0 2:0.0 
-1.0 1:0.0 2:1.0 
-1.0 1:0.0 2:0.0 
-1.0 1:0.0 2:0.0 
-1.0 1:0.0 2:0.0 
-1.0 1:0.0 2:0.0 
-1.0 1:0.0 2:1.0 
-1.0 1:0.0 2:1.0 
-1.0 1:0.8 2:0.19999999999999996 
-1.0 1:1.0 2:0.0 
-1.0 1:0.5 2:0.5 
-1.0 1:0.0 2:0.0 
-1.0 1:0.0 2:1.0 
-1.0 1:1.0 2:0.0 
-1.0 1:0.0 2:0.0 
-1.0 1:0.0 2:0.0 
-1.0 1:0.5 2:0.5 
-1.0 1:0.0 2:0.0 
-1.0 1:0.0 2:1.0 
-1.0 1:0.0 2:0.0 
-1.0 1:0.0 2:0.0 
-1.0 1:0.0 2:1.0 
-1.0 1:1.0 2:0.0 
-1.0 1:0.0 2:0.0 
-1.0 1:1.0 2:0.0 
-1.0 1:0.0 2:1.0 
-1.0 1:0.375 2:0.625 
-1.0 1:0.0 2:1.0 
-1.0 1:0.375 2:0.625 
-1.0 1:1.0 2:0.0 
-1.0 1:0.0 2:0.0 
-1.0 1:0.0 2:0.0 
-1.0 1:0.0 2:0.0 
-1.0 1:0.4166666666666667 2:0.5833333333333333 
-1.0 1:1.0 2:0.0 
-1.0 1:0.0 2:0.0 
-1.0 1:0.0 2:1.0 
-1.0 1:0.0 2:0.0 
-1.0 1:0.0 2:0.0 
-1.0 1:0.0 2:1.0 
-1.0 1:0.0 2:1.0 
-1.0 1:0.0 2:1.0 
-1.0 1:1.0 2:0.0 
-1.0 1:0.0 2:0.0 
-1.0 1:1.0 2:0.0 
-1.0 1:0.0 2:0.0 
-1.0 1:0.0 2:0.0 
-1.0 1:0.0 2:0.0 
-1.0 1:0.0 2:1.0 
-1.0 1:1.0 2:0.0 
-1.0 1:1.0 2:0.0 
-1.0 1:1.0 2:0.0 
-1.0 1:0.0 2:0.0 
-1.0 1:0.38461538461538464 2:0.6153846153846154 
-1.0 1:0.0 2:0.0 
-1.0 1:0.0 2:0.0 
-1.0 1:0.7692307692307693 2:0.23076923076923073 
-1.0 1:0.0 2:0.0 
-1.0 1:0.0 2:0.0 
-1.0 1:0.0 2:1.0 
-1.0 1:0.5 2:0.5 
-1.0 1:1.0 2:0.0 
-1.0 1:1.0 2:0.0 
-1.0 1:1.0 2:0.0 
-1.0 1:0.4857142857142857 2:0.5142857142857142 
-1.0 1:0.0 2:1.0 
-1.0 1:0.0 2:0.0 
-1.0 1:0.0 2:0.0 
-1.0 1:1.0 2:0.0 
-1.0 1:0.0 2:0.0 
-1.0 1:0.0 2:0.0 
-1.0 1:0.0 2:0.0 
-1.0 1:0.375 2:0.625 
-1.0 1:0.0 2:0.0 
-1.0 1:1.0 2:0.0 
-1.0 1:0.0 2:0.0 
-1.0 1:0.0 2:0.0 
-1.0 1:0.0 2:0.0 
-1.0 1:0.0 2:0.0 
-1.0 1:0.0 2:0.0 
-1.0 1:0.0 2:0.0 
-1.0 1:0.0 2:0.0 
-1.0 1:1.0 2:0.0 
-1.0 1:0.0 2:0.0 
-1.0 1:0.0 2:1.0 
-1.0 1:0.0 2:1.0 
-1.0 1:1.0 2:0.0 
-1.0 1:1.0 2:0.0 
-1.0 1:0.0 2:0.0 
-1.0 1:0.0 2:0.0 
-1.0 1:0.0 2:1.0 
-1.0 1:0.0 2:1.0 
-1.0 1:0.5833333333333334 2:0.41666666666666663 
-1.0 1:0.0 2:0.0 
-1.0 1:0.0 2:1.0 
-1.0 1:0.0 2:0.0 
-1.0 1:0.0 2:0.0 
-1.0 1:0.0 2:1.0 
-1.0 1:0.0 2:0.0 
-1.0 1:0.0 2:1.0 
-1.0 1:0.4166666666666667 2:0.5833333333333333 
-1.0 1:0.0 2:1.0 
-1.0 1:0.0 2:0.0 
-1.0 1:1.0 2:0.0 
-1.0 1:0.0 2:0.0 
-1.0 1:0.0 2:0.0 
-1.0 1:0.0 2:0.0 
-1.0 1:0.0 2:1.0 
-1.0 1:0.0 2:0.0 
-1.0 1:0.5263157894736842 2:0.4736842105263158 
-1.0 1:1.0 2:0.0 
-1.0 1:0.0 2:1.0 
-1.0 1:0.0 2:0.0 
-1.0 1:0.5263157894736842 2:0.4736842105263158 
-1.0 1:0.0 2:1.0 
-1.0 1:1.0 2:0.0 
-1.0 1:0.0 2:0.0 
-1.0 1:0.0 2:1.0 
-1.0 1:0.42857142857142855 2:0.5714285714285714 
-1.0 1:0.0 2:0.0 
-1.0 1:0.0 2:0.0 
-1.0 1:0.0 2:0.0 
-1.0 1:0.0 2:1.0 
-1.0 1:0.8333333333333334 2:0.16666666666666663 
-1.0 1:1.0 2:0.0 
-1.0 1:1.0 2:0.0 
-1.0 1:1.0 2:0.0 
-1.0 1:1.0 2:0.0 
-1.0 1:1.0 2:0.0 
-1.0 1:0.0 2:0.0 
-1.0 1:0.0 2:1.0 
-1.0 1:1.0 2:0.0 
-1.0 1:0.0 2:0.0 
-1.0 1:0.0 2:1.0 
-1.0 1:1.0 2:0.0 
-1.0 1:0.8421052631578947 2:0.1578947368421053 
-1.0 1:0.0 2:0.0 
-1.0 1:1.0 2:0.0 
-1.0 1:1.0 2:0.0 
-1.0 1:0.0 2:0.0 
-1.0 1:0.0 2:1.0 
-1.0 1:1.0 2:0.0 
-1.0 1:0.0 2:1.0 
-1.0 1:0.0 2:0.0 
-1.0 1:0.0 2:0.0 
-1.0 1:1.0 2:0.0 
-1.0 1:1.0 2:0.0 
-1.0 1:0.0 2:0.0 
-1.0 1:0.625 2:0.375 
-1.0 1:0.0 2:0.0 
-1.0 1:0.0 2:0.0 
-1.0 1:0.625 2:0.375 
-1.0 1:0.625 2:0.375 
-1.0 1:1.0 2:0.0 
-1.0 1:0.0 2:0.0 
-1.0 1:0.0 2:0.0 
-1.0 1:0.0 2:1.0 
-1.0 1:0.0 2:0.0 
-1.0 1:0.7 2:0.30000000000000004 
-1.0 1:0.5555555555555555 2:0.44444444444444453 
-1.0 1:0.0 2:0.0 
-1.0 1:1.0 2:0.0 
-1.0 1:1.0 2:0.0 
-1.0 1:1.0 2:0.0 
-1.0 1:0.0 2:0.0 
-1.0 1:0.0 2:0.0 
-1.0 1:0.6875 2:0.3125 
-1.0 1:0.0 2:1.0 
-1.0 1:0.5 2:0.5 
-1.0 1:0.0 2:1.0 
-1.0 1:0.0 2:1.0 
-1.0 1:1.0 2:0.0 
-1.0 1:0.0 2:0.0 
-1.0 1:0.0 2:1.0 
-1.0 1:0.0 2:0.0 
-1.0 1:0.0 2:1.0 
-1.0 1:0.0 2:0.0 
-1.0 1:0.0 2:1.0 
-1.0 1:0.0 2:1.0 
-1.0 1:0.0 2:1.0 
-1.0 1:0.0 2:0.0 
-1.0 1:0.0 2:0.0 
-1.0 1:0.0 2:0.0 
-1.0 1:0.0 2:0.0 
-1.0 1:0.0 2:0.0 
-1.0 1:0.0 2:0.0 
-1.0 1:0.0 2:0.0 
-1.0 1:0.0 2:0.0 
-1.0 1:1.0 2:0.0 
-1.0 1:0.5263157894736842 2:0.4736842105263158 
-1.0 1:1.0 2:0.0 
-1.0 1:0.6650717703349283 2:0.33492822966507174 
-1.0 1:0.0 2:0.0 
-1.0 1:0.5 2:0.5 
-1.0 1:0.0 2:0.0 
